{"sizes": [14, 15, 6], "weights": [[[0.029362463049124814, 0.04747981353792069, 0.019467163906348797, 0.04095161219120145, 0.00832104983415801, 0.0266256235356065, 0.017655880283126188, 0.04530919259107525, -0.008573984377210622, 0.028354975007593996, 0.011003938958745076, 0.025265735355076948, 0.016919328577006915, 0.01997647773094253], [-0.013311613726784263, 0.04280853271300968, -0.02796039617839893, 0.023896000211008104, -0.02797455847623834, 0.02911838683850266, -0.03605718002392961, 0.03388554751421432, -0.14296077258734854, 0.0123839069464754, 0.03484324180062934, 0.029079453051912146, 0.2088005633749917, 0.012524454292912442], [0.03883216754939185, -0.05532425959751358, 0.06695918908946118, -0.06142285755636642, 0.01389934767011867, -0.08970426322857022, 0.04752446357651571, -0.0544226531664992, 0.12752848111832055, -0.06090017797298917, 0.01053241924901879, -0.04655839765007257, 0.3966533111730351, -0.048757850075400136], [-0.19610313856898323, -0.039478930548599314, -0.008804861084966387, -0.02560294210153634, 0.18103945573535263, -0.02328142161275259, 0.0507926281624768, -0.04803415770732768, 0.1450779062824057, -0.03767750147358468, 0.2100318790622889, -0.040261396375999334, -0.5537707843724163, -0.014002891605164106], [-0.08864242990456986, 0.07290032785422347, -0.06530812810827737, 0.09058703910121563, -0.1773557811335961, 0.10226311872468846, -0.12419464268430941, 0.10199772441097307, -0.07848775200397169, 0.1275670078914096, -0.27198867178422503, 0.08877840354420324, -0.07153972924646004, 0.08056303366522372], [0.06423917180600472, -0.02065550073194048, 0.08680292691877335, -0.025580825707556414, 0.11152859970918368, -0.08790825791890788, 0.0552574221523615, -0.06258158316245593, 0.1598868005457135, -0.05217011936580762, 0.07475527242537618, -0.06329206835518147, 0.0645963649603129, -0.05361317387129797], [-0.012316178570229467, 0.026786243153098396, -0.007728141265867445, 0.013617631766958481, -0.032407976365665114, 0.008125792367688987, -0.0010493445084561732, 0.02408002990101295, -0.07068568065822814, 0.012714220769192415, -0.012755245415641837, 0.020958781198074546, -0.025130096731240004, -0.023090666880418952], [0.005807502442279938, 0.01760071666623822, -0.0001257158661606406, 0.02530050683271221, -0.02313597602935805, -0.0019081974333624685, -0.04063499830548205, 0.0053567536641347365, -0.03251589501893009, 0.01613138320923021, -0.017287950658623447, 0.008087374346470309, 0.004281968519909476, -0.012544550541606391], [0.0035013443400494513, -0.019843497613496824, 0.005370788676077616, 0.005376103955448232, -0.006438290082845153, -0.011983043883995402, -0.020146381404086658, -0.024292048654769666, -0.011530583476666221, -0.018796816702462592, 0.008953424968112744, -0.012951565678614718, -0.019850329794486612, 0.004233356558641075], [0.04780399060294021, -0.056640413975232694, 0.06871937429030832, -0.053519909039869556, 0.11540786540061693, -0.06176145966557852, 0.0569997635554254, -0.044390640123160734, 0.16498975471216729, -0.058046288667629765, 0.07525498104756682, -0.06114981780191567, 0.05891172663503107, -0.026289887487412397], [0.1389439814827532, -0.25065465426286665, 0.10899696277846191, -0.2532956868153298, 0.2103298666435713, -0.29833206801922585, 0.1301413295967586, -0.3113309666177855, 0.6435164158593638, -0.32755698816040496, 0.2485120160383914, -0.23065282561559353, 0.6304041815730725, -0.1959588442980627], [0.12038481132084618, -0.15137897527004998, 0.19149060721272562, -0.18722440549947023, 0.20067589737756783, -0.18898617223828743, 0.12623576400441588, -0.18345220303309906, 0.20169253899776457, -0.18529402414295135, 0.3462357276017743, -0.1509301668314163, 0.0856773354292531, -0.11217426532597533], [0.01418499538444647, 0.02470592649594489, 0.0165519365422192, 0.01673177399469911, 0.008751571963354675, 0.036971412926485106, -0.002555076235928392, 0.037189841320740755, -0.007277366807076394, 0.029976212067572356, 0.016450330818780532, 0.05051924670923689, 0.007573861470491611, -0.009245433425238682], [0.0905690249388778, 0.24597543369313843, -0.1327492729443518, 0.2602604548611502, -0.21379634988630414, 0.30022752078461745, -0.14535590008712157, 0.28350618740366346, -0.7433204660404632, 0.3013520198093526, -0.179199427041914, 0.2336799967563518, -0.6855314697953111, 0.1872248212621494], [0.1348840044645753, -0.1720480075573874, 0.22881638717504915, -0.17711041558244675, 0.20559384319011242, -0.2167600481497115, 0.1315625951582969, -0.2129592507332991, 0.21872099594111286, -0.20842417740119365, 0.3461160029287706, -0.18016252798226165, 0.11825276397121186, -0.12309345240179219]], [[-0.15789817160954994, -0.0835398934899376, 0.4483016343388048, -0.7651537201647176, -0.5098652594962474, 0.04849868936271921, -0.05671684803094711, -0.04215013605234919, 0.00907078177563167, 0.04445328887868437, 1.1547757050463983, 0.5005370811998558, -0.1631569156323786, -1.4058342277822233, 0.5883190358171918], [-0.1931401711606246, -0.3334498695136263, -0.3624821355157854, 0.9417071182973313, -0.6051866190684, 0.06391554251626139, -0.023491074568734407, -0.05577252084819843, -0.020165498421782783, 0.09366976469813805, -0.7817896715279649, 0.48989374500093813, -0.19275311823306163, 0.7282391315183584, 0.4005537576144954], [-0.12272896599753988, -0.11736412912516153, -0.04227472991754621, 0.16078438828966476, -0.0550477233825214, 0.08428623615543314, -0.02517803285295328, -0.0036396753541677886, -0.003852036197074127, 0.07341097088846822, -0.5430898947282738, -0.43589006675037584, -0.13511741730373344, 0.29396266465628645, -0.6046938598992663], [-0.3056504206372455, -0.36225113271681125, -0.1701466581444787, 0.11930615559393672, 0.2757494047052738, -0.031302539284354135, -0.0321834526915711, -0.031840460440027266, 0.01046461380503269, -0.02847810748620627, -0.4131618099860068, -0.6808370225567834, -0.32303289321416295, 0.12866549611066644, -0.6363293298419634], [-0.12963512790890322, -0.12606921873185198, -0.06938922627146099, -0.07467756107404956, 0.244051171634962, -0.1347245512823995, -0.00669432070827059, -0.0072646214995782605, 0.008717451190796883, -0.1468858499241209, -0.23982620828896967, -0.3479834230171416, -0.1383385728637679, 0.14617686678011743, -0.34674024078640364], [-0.022573940154320387, 0.12279040644712075, -0.3119877811405221, -0.33764655519234205, 0.7681324743929197, -0.5789671876166791, 0.07903094274467046, 0.049263013162761986, 0.00032259391029615056, -0.5822895940067674, -0.4095361502403358, -0.628493330658358, 0.003835770035898102, 0.4190634677164763, -0.5996605308575427]]], "biases": [[[-1.41828726202004], [-0.1939602854850531], [-1.321735716625753], [0.18779393938246627], [1.663287494698517], [-0.1032706818800437], [-0.09575789111585813], [0.21632179235017568], [-1.7180338475377563], [0.22300082339397337], [-0.1048355498926252], [-0.9564404081993525], [0.011396759351290912], [-0.34210103017005095], [-0.7394257223061099]], [[-0.1644633609697779], [-1.4594520078035855], [-1.5616836811516823], [-1.0765765537212302], [-2.8295943917042097], [-1.2879043735991011]]], "cost": "CrossEntropyCost"}