{"sizes": [14, 15, 6], "weights": [[[0.03110629280355662, 0.015940252359326418, 0.009982671071202502, 0.011399101068980315, 0.04192524743501289, 0.03423269205365958, 0.027609437435393135, 0.021984062188790628, 0.01527833606979716, -0.002815355625437025, 0.00876570156970605, 0.024610280118288794, 0.02385842509944479, 0.03688030013603684], [-0.07252265709448989, -0.20430224507859707, 0.13770700511909004, -0.24319505823390156, 0.23128567298191077, -0.2950298541901062, 0.1568113163415184, -0.2828743664313285, 0.6936057586919964, -0.2936369706921345, 0.23384839907259491, -0.2243517159492596, 0.6875078487071131, -0.16650358892355147], [0.009490427417419373, 0.01287627184760579, 0.0232687432975917, 0.031229285891676593, 0.014252485159210168, 0.024727990904800136, 0.026103339744250182, 0.024169538761952054, 0.023590108585419257, 0.053843212578209364, -0.007102735181491831, 0.03200796745394662, 0.0002906544732472054, 0.015132152659926155], [-0.01761066469707089, 0.018780847650421404, -0.013084650004478384, 0.022609722498884325, 0.030899077179680025, 0.04575728928256513, -0.03282011183975672, 0.052581740211165, -0.08183526786254725, 0.006398127972980824, 0.03892469210237972, 0.011985023677710342, -0.20613312213320836, 0.015422172293890785], [-0.022893964121940145, 0.06712655488643837, -0.0704390282876848, 0.060165418065358744, -0.12345772770823425, 0.041215593114731164, -0.06139792041841797, 0.05954942184829332, -0.18179314325879964, 0.06261660188606658, -0.10574582308519184, 0.04175322991977621, -0.08116808002070183, 0.058790253997226614], [0.026029234672321794, 0.025808209676478337, 0.02518322572684521, 0.016661019630280074, 0.013476335676508681, 0.03857533126224409, 0.014274323543157401, 0.022687416979348146, 0.01808923315151991, 0.03937474117408501, 0.022433251883962505, 0.0062410788511405085, -0.0168580957620364, 0.02808470177122489], [-0.05106680264052693, 0.037913870121572824, -0.08512610616470356, 0.06585950137653791, -0.18718775279165423, 0.07885232501440696, -0.10737255327624139, 0.09958948078104876, -0.08113002440837526, 0.09788103465559803, -0.2270856557078623, 0.08056101293100713, -0.11373440034871997, 0.08256834635529008], [0.10230544871359108, -0.061459490214117306, 0.10281220428761137, -0.05193352350870194, 0.1138742786792401, -0.0929433812933619, 0.02399975592965774, -0.06288633411029239, 0.23119909680943868, -0.060952788859745546, 0.07730895403128507, -0.05038271254144448, -0.006641140441146637, -0.03223045113537219], [0.010675059495509981, 0.05021598459461453, -0.029834047807410516, 0.03746693299978823, 0.18479589176210104, 0.05301329766163152, -0.05795134688440956, 0.043090410235358485, -0.5368702831568897, 0.04876592848867427, 0.3469222694771531, 0.03960026830537367, -0.41258843587514965, 0.06866375019376873], [-0.02519741293743973, 0.037986515689188184, -0.05241702116268858, 0.029438429036811275, -0.07471337800132255, 0.03417752720714614, -0.047000431856842426, 0.032985360770228914, -0.10659306522019073, 0.04440108062273364, -0.04298220686377741, 0.040056818904643667, -0.00568310504586587, 0.026721371348837526], [-0.012877017533256062, -0.22270828540646792, 0.13848183074440676, -0.23406564092718474, 0.2261965965497432, -0.28078679554856234, 0.15593869225078125, -0.2643238538684877, 0.6006675008702181, -0.24678848373804826, 0.25498990392587245, -0.23218786834396404, 0.6525597084752968, -0.1952375912246864], [0.0296579239492831, 0.05003103071687057, 0.013738727960221405, -0.004880823064403962, 0.017642135385168997, 0.04829808605434312, 0.01901134693826749, 0.025237928278900416, 0.01719961690111983, 0.025880715684569802, 0.019124191913094425, 0.034801177488324786, 0.0004000632319507986, 0.014133632973390927], [0.16421571345685268, -0.18121956168923803, 0.09235923055112967, -0.2182518128300958, 0.19208190712320145, -0.22620342586418637, 0.10264398864542054, -0.23809610568934014, 0.3469097469223317, -0.22041319104526472, 0.2275217728002234, -0.19095617421308725, 0.5650224562780486, -0.11905370519772462], [-0.015721054147225532, -0.01809442534887859, -0.0036229473422232893, -0.012189498296725452, 0.008656360131418373, -0.014525853543297529, 0.006995547189198257, -0.015307301857277458, -0.01311452154268696, -0.017415428404093998, -0.005529851396573167, -0.02614916937351847, 0.02022308112682369, -0.020413411412742666], [-0.15936874598345052, 0.17265581545304648, -0.2627944091113967, 0.1636904802899513, -0.23795247721160595, 0.21204619118782628, -0.14842031882249582, 0.21798807936265394, -0.22310663969295716, 0.22019772197001264, -0.4001896972680382, 0.1847427492312646, -0.07046928340401909, 0.1366476063241987]], [[-0.3593446192342078, 1.1357000152450458, -0.3224108077262347, -0.25632714000432244, -0.1520944691470803, -0.3665643664230624, -0.309062593036966, -0.13089801635999987, -0.6872864874625264, -0.03691945266820908, 1.113400583121548, -0.34138447123477295, 0.9074459185851077, 0.012855946080822151, -0.8196671072039735], [-0.00038627019196159763, -0.8320602300406083, 0.014486381163505481, 0.09853047905897222, -0.2841104561338241, -0.018942295223660827, -0.5318980181395518, 0.44040225603446237, 0.6235201320291829, -0.12047523012607009, -0.7100516533563908, 0.0032068395134278033, -0.5575821775895823, -0.010085814260191844, -0.8509488700292193], [-0.2919972940141242, -0.536858554741434, -0.3321765887551412, -0.11129591731418038, -0.21909995846087477, -0.35415421162464783, -0.29134222222934025, -0.19439924882857718, -0.19903949885640415, -0.04228899631724684, -0.5882544092613431, -0.3572617998686114, -0.48393131407538764, 0.02026689091388726, 0.4178907420072547], [-0.29441359282923846, -0.47982150038440685, -0.29730434435116593, -0.08777276644440846, -0.14744340641995785, -0.2764044465389084, 0.13112425006740203, -0.12443446911540629, -0.4416692619166745, -0.02761637586744415, -0.5145046780884658, -0.2838731830572022, -0.4272540944528179, 0.006190402075427513, 0.5188312989252327], [-0.22489852926843848, -0.2592552551360498, -0.228103764618109, -0.0843698525066601, 0.06532996604941842, -0.2240597111959689, 0.2443438437182618, -0.29363869082599087, -0.19635555578005295, 0.006922077051124391, -0.31253278355072195, -0.22012550119007931, -0.25380753927646593, 0.00013824832584665182, 0.2234593938256307], [-0.2690503761220359, -0.4076026527061357, -0.2636773803375281, 0.04877867432554177, 0.6133247733832523, -0.26329615889519403, 0.6812286305289658, -1.0476442939605128, 0.11733491067211514, 0.21480175453618708, -0.45455699594079485, -0.25864790213100297, -0.40924190167269564, 0.008110826664318668, 0.5538946085262562]]], "biases": [[[-0.4960308129821274], [-0.7546132875229993], [-0.586488246818708], [-0.6956051634500234], [-0.4393623519162026], [-0.6942995582632038], [1.5332069500702958], [-0.673069521998823], [-0.8307099681036146], [-0.5813069381730274], [-0.7152835453484425], [-1.1824425807637589], [0.5781933682734357], [-0.4502559385400127], [0.4351897776917627]], [[0.6903662040616447], [-0.6715223019597008], [-0.11079274091631512], [-0.939181685109471], [-2.20432819231379], [-0.7838575327108964]]], "cost": "CrossEntropyCost"}